[
  {
    "learningRate": 0.005,
    "activationFunction": 1
  },
  [
    {
      "bias": 4376.671166251519,
      "weight": []
    },
    {
      "bias": -9939.52238670983,
      "weight": []
    },
    {
      "bias": -26795.395534544157,
      "weight": []
    },
    {
      "bias": 11854.709858537493,
      "weight": []
    },
    {
      "bias": -8454.68048830768,
      "weight": []
    },
    {
      "bias": -114.09556990707799,
      "weight": []
    },
    {
      "bias": -5654.595765626316,
      "weight": []
    },
    {
      "bias": 3980.8223528675635,
      "weight": []
    },
    {
      "bias": 463.35398240049943,
      "weight": []
    },
    {
      "bias": 142.84539698533266,
      "weight": []
    },
    {
      "bias": 16.32225340827492,
      "weight": []
    },
    {
      "bias": -79.32890387776366,
      "weight": []
    }
  ],
  [
    {
      "bias": -1.7692408787238716,
      "weight": [
        7.460735858562403,
        -6.913904288405779,
        -1.9525865348923794,
        2.25422333559507,
        0.07735359885446658,
        0.21063177685954657,
        -0.8915790984700864,
        0.8666173430888983,
        -0.7881544839246595,
        -1.6313472671100917,
        1.8488647479558156,
        0.5332010069706752
      ]
    },
    {
      "bias": -0.7418775310462556,
      "weight": [
        3.4855766980906555,
        1.3674244104544055,
        3.7001319268701995,
        -0.2272901561725105,
        -1.4369586173868292,
        -2.06322495411861,
        1.0970448505721453,
        1.4962042813167644,
        -2.828863724954039,
        -1.8184464407610264,
        0.000487923458357678,
        0.43944061076247054
      ]
    },
    {
      "bias": 1.0355800200948764,
      "weight": [
        -0.6624530077619442,
        2.071876094710209,
        3.74117638406898,
        -1.7786209507225526,
        2.3885970946497594,
        -1.0988843420549685,
        2.4907352938611442,
        -2.925479307277213,
        -2.1918327006649556,
        -0.1721950203987899,
        0.14717073958879273,
        -0.48871417956549745
      ]
    },
    {
      "bias": -2.0483718981518053,
      "weight": [
        -0.16329815524241897,
        -1.3603010781851304,
        -1.6669680528196649,
        0.7187422867777878,
        -4.924919926272846,
        1.5029070120606487,
        -2.153059593968748,
        1.9914488050654926,
        -0.7616962228881581,
        -1.5791977176261314,
        3.774687518852259,
        -1.3159976233635613
      ]
    },
    {
      "bias": -6.7390204438828745,
      "weight": [
        -1.3715302851182878,
        -5.06710337947544,
        3.132958906971749,
        2.0924282312103353,
        0.029619118006389143,
        0.9369530906383212,
        0.043604269470635185,
        -0.7177372341159717,
        0.8487767518336423,
        1.3285630958713721,
        -0.3942380400290413,
        -1.155990529364419
      ]
    },
    {
      "bias": 3.460220807272112,
      "weight": [
        -3.1732177145278113,
        0.9341346322667283,
        6.966987470389353,
        1.3285977873086587,
        0.08131630045428208,
        5.535026553113574,
        -1.2696712524307134,
        0.8916569626977521,
        -0.17521154124845145,
        -1.5654546838889383,
        -0.36822419642170506,
        0.2791151503560622
      ]
    },
    {
      "bias": 0.19766219155661935,
      "weight": [
        1.2219230698926906,
        0.7859665332911789,
        -9.034147170424216,
        -1.1932573669338267,
        6.347236790910007,
        4.543073121245873,
        -1.262709507670987,
        -4.721207553483495,
        -1.2446102145120377,
        -0.12048940219659447,
        -2.1781638970847546,
        -0.7686048436455363
      ]
    },
    {
      "bias": 6.315823672928634,
      "weight": [
        0.3498976169406014,
        -0.3880141749457482,
        0.6476742559689137,
        -2.5884369332023005,
        -0.9363417565978928,
        0.8142734675468803,
        -1.1250752994037947,
        0.17812040543223456,
        -0.11975895174576458,
        0.02595159846032986,
        1.1816545915826049,
        2.668669773806894
      ]
    },
    {
      "bias": 3.156614376726347,
      "weight": [
        3.940109656697683,
        2.5343499979390813,
        -5.117501841429251,
        -8.530004090684047,
        1.7469272445072388,
        2.0694516656600506,
        4.381097536678937,
        -5.823041824439623,
        -5.906277508612695,
        -0.24482731331501006,
        -0.11043395278602443,
        0.2968187720102513
      ]
    },
    {
      "bias": 7.921120102843703,
      "weight": [
        -0.9355351829561384,
        0.10527251070921541,
        -0.08338625267015744,
        -1.2015424513000221,
        -0.3794677646711501,
        1.64154866333442,
        0.9670227369026321,
        -1.1942359413648438,
        0.7359612983585867,
        0.1470667060059837,
        -0.255594527066699,
        0.10302470443893592
      ]
    }
  ],
  [
    {
      "bias": 2.897927328203658,
      "weight": [
        3.644146878490177,
        -0.3047746234117811,
        2.422193539739984,
        2.051238800209506,
        -5.83648914170511,
        1.918316121203291,
        -2.4859158754119637,
        -11.187367471063277,
        6.106535222899741,
        10.617552146155278
      ]
    },
    {
      "bias": -0.6026182869831223,
      "weight": [
        -8.961918984875982,
        2.8029808557028817,
        3.6305047937143797,
        -2.7116636489886,
        11.19922983582091,
        -9.199790902001224,
        7.556515712099207,
        7.936004027493914,
        3.8810020678800417,
        9.890687863933804
      ]
    },
    {
      "bias": -1.0306636314250317,
      "weight": [
        3.8275936419241385,
        -3.712025194060272,
        -5.907844992063673,
        -0.5255929981251892,
        2.5258988188139386,
        6.395452590127029,
        -4.773146648199901,
        7.431205524494101,
        1.7651685743330574,
        0.2838359581836094
      ]
    },
    {
      "bias": 3.235199283953903,
      "weight": [
        -1.5214623634874134,
        -5.186778362621033,
        2.193116890682247,
        4.045406453717168,
        15.416257355274544,
        -1.7084713069193098,
        -5.872282753568625,
        -14.316876880025001,
        13.227159224945478,
        -6.687704271798431
      ]
    },
    {
      "bias": 1.1169820925338454,
      "weight": [
        6.266379069024606,
        3.532206178742616,
        6.361227890354566,
        -5.300084710681974,
        -2.652813037585614,
        4.71065358184258,
        -7.746228894114882,
        4.113889238567283,
        -4.033500084074674,
        -7.393157560842896
      ]
    },
    {
      "bias": -2.9335172551790962,
      "weight": [
        4.044554460897956,
        -9.833947128905765,
        0.9808566577223452,
        -10.554195334474917,
        8.16467770651237,
        -5.973012260641088,
        7.420898242654631,
        -9.42233906163944,
        3.8666996000612985,
        9.788912221056497
      ]
    },
    {
      "bias": -0.36878208799498124,
      "weight": [
        -3.5844230951113447,
        0.541997222532362,
        -3.4690206921113096,
        1.1560002319726013,
        0.3582108439111052,
        2.0937953142412775,
        1.0832197572099476,
        1.7172150162631277,
        -1.9325765888924433,
        -0.6290938442975482
      ]
    },
    {
      "bias": -5.293546293353232,
      "weight": [
        9.544627867539711,
        14.008687484467263,
        -12.358811169105715,
        -8.068824500840874,
        -6.823786491028684,
        1.8356328428382827,
        1.8735401216937337,
        -11.931477617755787,
        -3.191605679557983,
        13.575803057431514
      ]
    }
  ],
  [
    {
      "bias": 1.5397644663616459,
      "weight": [
        13.986641136586114,
        21.319513442231884,
        -9.953755288019474,
        21.57148935623438,
        -15.774397159124057,
        -19.599673974316993,
        -5.315823226399748,
        -27.668002376915048
      ]
    }
  ]
]
